digraph Tree {
node [shape=box] ;
0 [label="Work-Flow-ID <= 3.5\nmse = 0.011\nsamples = 11741\nvalue = 0.06"] ;
1 [label="File Name <= 5.5\nmse = 0.009\nsamples = 9329\nvalue = 0.042"] ;
0 -> 1 [labeldistance=2.5, labelangle=45, headlabel="True"] ;
2 [label="Day of Week <= 5.5\nmse = 0.003\nsamples = 2313\nvalue = 0.1"] ;
1 -> 2 ;
3 [label="Hour of Day <= 11.0\nmse = 0.003\nsamples = 1635\nvalue = 0.12"] ;
2 -> 3 ;
4 [label="mse = 0.0\nsamples = 838\nvalue = 0.077"] ;
3 -> 4 ;
5 [label="mse = 0.002\nsamples = 797\nvalue = 0.166"] ;
3 -> 5 ;
6 [label="Hour of Day <= 11.0\nmse = 0.001\nsamples = 678\nvalue = 0.053"] ;
2 -> 6 ;
7 [label="mse = 0.0\nsamples = 343\nvalue = 0.032"] ;
6 -> 7 ;
8 [label="mse = 0.0\nsamples = 335\nvalue = 0.075"] ;
6 -> 8 ;
9 [label="Day of Week <= 1.5\nmse = 0.01\nsamples = 7016\nvalue = 0.023"] ;
1 -> 9 ;
10 [label="Hour of Day <= 11.0\nmse = 0.057\nsamples = 960\nvalue = 0.096"] ;
9 -> 10 ;
11 [label="mse = 0.004\nsamples = 504\nvalue = 0.038"] ;
10 -> 11 ;
12 [label="mse = 0.107\nsamples = 456\nvalue = 0.158"] ;
10 -> 12 ;
13 [label="Work-Flow-ID <= 2.5\nmse = 0.001\nsamples = 6056\nvalue = 0.011"] ;
9 -> 13 ;
14 [label="mse = 0.001\nsamples = 4010\nvalue = 0.014"] ;
13 -> 14 ;
15 [label="mse = 0.0\nsamples = 2046\nvalue = 0.004"] ;
13 -> 15 ;
16 [label="Hour of Day <= 15.0\nmse = 0.011\nsamples = 2412\nvalue = 0.135"] ;
0 -> 16 [labeldistance=2.5, labelangle=-45, headlabel="False"] ;
17 [label="Day of Week <= 5.5\nmse = 0.014\nsamples = 1609\nvalue = 0.151"] ;
16 -> 17 ;
18 [label="Hour of Day <= 7.0\nmse = 0.001\nsamples = 1162\nvalue = 0.093"] ;
17 -> 18 ;
19 [label="mse = 0.001\nsamples = 589\nvalue = 0.08"] ;
18 -> 19 ;
20 [label="mse = 0.0\nsamples = 573\nvalue = 0.107"] ;
18 -> 20 ;
21 [label="Hour of Day <= 7.0\nmse = 0.02\nsamples = 447\nvalue = 0.293"] ;
17 -> 21 ;
22 [label="mse = 0.002\nsamples = 220\nvalue = 0.166"] ;
21 -> 22 ;
23 [label="mse = 0.007\nsamples = 227\nvalue = 0.419"] ;
21 -> 23 ;
24 [label="Day of Week <= 5.5\nmse = 0.003\nsamples = 803\nvalue = 0.104"] ;
16 -> 24 ;
25 [label="Day of Week <= 4.5\nmse = 0.0\nsamples = 578\nvalue = 0.073"] ;
24 -> 25 ;
26 [label="mse = 0.0\nsamples = 456\nvalue = 0.072"] ;
25 -> 26 ;
27 [label="mse = 0.0\nsamples = 122\nvalue = 0.074"] ;
25 -> 27 ;
28 [label="Day of Week <= 6.5\nmse = 0.001\nsamples = 225\nvalue = 0.183"] ;
24 -> 28 ;
29 [label="mse = 0.001\nsamples = 107\nvalue = 0.185"] ;
28 -> 29 ;
30 [label="mse = 0.001\nsamples = 118\nvalue = 0.181"] ;
28 -> 30 ;
}